80 64
43 -0.23543614 -0.22583449 -0.19040538 -0.23973772 -0.0129726855 0.0334782 -0.18955813 -0.14261374 -0.27931538 0.06623292 0.04803373 0.12102946 -0.0413521 -0.078885674 0.0981091 -0.15953985 -0.096457556 -0.2659712 0.16338816 -0.18188098 0.12783556 0.21412188 0.105786435 0.23518714 0.21097201 0.17178111 0.119113795 0.24765924 0.23926659 0.15032594 0.09563014 -0.077660486 -0.33709794 -0.534535 0.057201408 0.058520846 -0.0051420396 -0.2566833 0.15954807 0.06467287 0.036803536 -0.2978028 -0.21572323 -0.1645235 -0.1840052 0.036243606 0.11659361 0.05577114 -0.21276277 -0.16318385 -0.07087966 -0.24661829 -0.035688296 0.21454766 0.07779707 -0.045825627 -0.23595333 0.5018715 -0.10024929 -0.009313531 -0.065887615 0.07005808 -0.07573247 0.044829354
71 -0.0852496 0.17654414 0.08952833 0.19174154 0.3841725 0.034570683 0.6108072 -0.25100538 0.06465249 0.4863327 -0.083768025 -0.05899549 0.26459467 -0.20330724 -0.20901942 -0.11888997 -0.047660027 -0.13334434 0.3264776 -0.2194211 0.10702641 -0.15710536 -0.0023913272 -0.30859914 -0.25791538 -0.3523643 -0.18378386 0.16347672 -0.14806527 0.33485207 -0.1993026 0.43839735 -0.09442461 -0.1519666 -0.46954805 -0.12667815 -0.03411654 -0.024405077 0.037131894 0.07740468 -0.1549551 0.08088759 0.15233886 -0.24810486 0.1626721 0.03020169 -0.48455817 -0.3448866 0.32068592 0.2131867 0.09253677 0.050646953 -0.08434875 0.16345377 -0.048438523 -0.009322822 0.3986692 0.14258987 -0.07971889 0.47637194 -0.32436812 0.16305861 0.048904732 -0.11319395
61 -0.29887018 -0.16358435 -0.57204086 0.2387068 0.27472892 0.20805205 0.82329804 -0.3346594 0.08673149 0.23433198 0.29944438 -0.22028099 0.002942031 0.15854217 -0.07661906 -0.34058422 -0.08081565 0.2346797 -0.078085884 -0.06856801 0.52930075 -0.39484134 0.24824001 0.32530025 -0.100572236 0.31211713 -0.003531926 0.31348783 0.26309043 0.014456704 -0.34024888 0.15428798 -0.39031047 -0.05017328 0.02236765 -0.1611479 -0.0050361883 -0.1857237 -0.24191946 0.113648385 -0.23941362 0.23262765 0.049158614 0.16032578 0.140775 0.11978053 0.21752456 -0.1425359 -0.07887014 -0.008790766 -0.12401351 -0.41832635 -0.1430759 -0.038759727 -0.051304214 -0.09732427 0.24654563 0.3330337 0.0016838448 -0.3433934 0.22708529 0.2992861 -0.15369685 0.029320769
19 0.10260427 -0.06551686 0.015147776 -0.07431132 0.073697396 0.1274217 -0.24621905 -0.14570214 -0.23180658 -0.4931546 0.5033441 0.19710378 0.028402403 -0.1609289 -0.09978606 0.091859095 0.2804263 0.0044129645 0.17957309 -0.11889747 -0.07984038 0.0812779 -0.08731068 0.39693934 -0.029324723 0.015640374 0.08838029 0.20885332 -0.022257676 0.29852885 -0.031006256 0.15543923 0.022663774 -0.24924749 -0.12589143 0.37210006 0.08506268 -0.40216318 0.06342954 0.19257587 -0.29929802 -0.08682367 0.09752927 -0.20955475 -0.046979193 0.12577184 0.052485336 0.45586336 -0.42776003 0.029488659 0.08556025 -0.38285303 0.17374632 0.5180062 0.14369331 0.16381676 -0.34289944 0.24977164 -0.20079297 0.09591448 0.2685618 0.5422531 0.19531588 0.2250614
56 0.31185457 0.12511438 0.113966994 0.07096471 -0.24093981 -0.32897404 -0.7115467 0.21698803 0.02279764 -0.2159527 0.014306182 -0.25293818 0.091421016 -0.28513834 0.446136 0.039570175 0.3669905 -0.28809935 0.017607154 -0.3193324 -0.034013215 0.22928022 -0.23784341 -0.15447643 0.17296 0.2784926 -0.05761171 0.33113328 0.5056239 0.15182611 -0.029660743 0.43947276 -0.21220015 -0.32301167 -0.1505229 0.019478291 0.08507566 -0.6413017 0.2275594 0.015127099 0.016296959 0.2317444 -0.15265247 -0.2592056 -0.37332243 -0.12690635 0.37124166 0.23739061 0.14479935 0.30794027 0.014720536 -0.23367307 -0.01399443 0.6125032 0.125496 0.16913898 -0.05610464 0.21047713 -0.056758925 0.55549246 0.039477732 -0.22100163 0.20896818 -0.013359148
7 -0.107609645 -0.17356496 0.113788486 0.59985787 -0.2604329 0.0740812 -0.11843291 -0.34437075 -0.16772462 0.2447151 -0.030365845 -0.40748742 0.18185112 -0.1135542 0.5946222 0.02046713 0.16940096 -0.08801446 -0.08711046 -0.06955327 0.49777502 0.3436209 -0.08052763 -0.2201847 -0.20327298 -0.056766097 -0.11884494 -0.088509835 0.27727818 0.13016239 -0.17213632 0.45527437 -0.08219836 -0.022777349 0.078055546 -0.22905183 0.2665841 -0.4621648 0.16539338 0.22815557 -0.03517841 0.24824502 -0.073599875 -0.24653985 -0.008653404 -0.25316194 -0.17792055 -0.13232876 0.055563733 0.33235943 -0.24434438 -0.23080438 -0.5571155 0.1054196 -0.085969865 0.14266777 -0.011907702 0.21336363 0.029554093 0.72645444 0.23598991 -0.10987387 -0.32444072 -0.11999912
28 -0.17745787 0.2436257 0.16731657 0.0359131 0.07808061 -0.13562192 -0.29670274 -0.10077883 0.021035107 0.22502653 0.41298598 0.032769103 -0.084366076 -0.22428267 0.32373372 -0.007149212 -0.057826303 -0.7051009 -0.061732113 0.24724576 -0.023298807 0.36396316 0.3638615 0.035155587 -0.05773985 0.046502165 0.3514185 0.12041725 0.18018614 -0.081333615 -0.110977605 0.48934105 0.023048772 -0.2046213 -0.22846217 -0.15125726 0.099828884 -0.25026777 -0.057453305 -0.08888627 0.18626654 -0.15457724 -0.10676536 -0.32969287 -0.02101987 -0.43510747 -0.043754984 -0.089555964 0.06458495 0.10517884 0.035888843 0.18030298 -0.094680406 0.62135553 -0.08618705 -0.35158148 0.06302982 0.36162502 0.064150095 0.3803605 -0.5275978 0.053647865 -0.35813397 -0.073002115
17 0.115361996 0.1217139 0.05939923 0.22548936 -0.09450493 0.048294038 -0.41010368 -0.12329558 0.12967362 0.051325433 0.1895344 0.1244288 0.14418519 -0.2927305 0.26981193 0.11759655 0.49142954 -0.17184351 0.19716604 -0.0388207 0.1058766 0.2134089 -0.10197797 0.0075329947 0.160334 0.34248972 0.02042341 0.12297167 0.30669686 -0.18521789 -0.13194565 0.46379936 -0.21661085 -0.55736643 -0.012721992 -0.38407657 0.004751397 -0.20331746 0.14992648 -0.19743672 0.06632461 0.14079964 -0.023848575 -0.33955908 0.16734861 -0.18459158 0.17603423 -0.36512834 0.07938422 0.10022373 -0.078532055 -0.2683998 -0.19421172 0.33824563 -0.050924342 -0.1648432 -0.11857629 0.27221912 -0.120677084 0.5277505 0.023201576 0.05631618 -0.13113165 -0.21104087
3 -0.23344553 -0.25353283 -0.12496718 0.00511712 0.35608128 -0.10160455 0.20461331 -0.07219571 0.18286164 0.18485615 0.5563703 0.15277062 0.24812128 0.036261797 -0.22211479 -0.29640347 0.010269847 -0.17012239 0.21664812 0.20716542 0.20262937 0.045705184 0.61650854 0.4120126 0.15899831 -0.051714882 -0.0697902 -0.012549238 0.017587904 0.28067514 -0.45762977 0.10997708 -0.22451524 0.16096295 -0.1502665 0.12184303 0.10542002 -0.075966805 -0.08507397 -0.17019495 -0.08476105 -0.10395223 0.19307128 -0.37476468 -0.15143448 -0.32596537 -0.28167224 0.18182822 -0.29020324 -0.2683467 0.14031994 -0.15319814 0.115775615 0.13755503 -0.15335019 0.17329158 0.40614507 0.5651413 -0.0044532665 0.077067174 -0.27450454 0.41470087 -0.2747226 0.16043767
53 -0.33360946 -0.21637402 -0.035838775 0.35379124 0.08844736 0.04806685 0.23471844 0.19692455 -0.5228404 -0.2725487 0.25968337 0.47815987 -0.23232394 -0.19769356 0.33288768 0.10717096 0.10728131 0.19145326 -0.4266308 -0.60876524 -0.09048629 -0.0933896 0.29089096 -0.27133873 -0.051146362 -0.1349992 0.032986928 0.2591099 0.31327027 -0.044347066 -0.15369868 0.22620918 -0.48432964 -0.1392167 0.08031229 0.49285695 0.23685288 -0.09736259 0.09035654 -0.12792386 -0.21994688 0.09247341 0.12506348 0.15910916 -0.51499355 -0.19491945 0.035480984 0.105091505 -0.35229123 0.28074753 -0.23763905 -0.5502318 0.06438938 0.39880782 -0.08400348 -0.5161411 0.35945302 0.3239503 -0.054497324 -0.39972216 -0.15262526 0.11569094 0.11920829 -0.16721219
77 0.022867948 -0.21685675 -0.17428473 -0.12477008 -0.04227806 -0.35586193 -0.173074 0.31806177 0.09757014 -0.0316416 0.42871326 -0.0918211 0.11874968 -0.01965426 0.039164167 -0.41760954 0.1838755 0.1406562 -0.03725502 -0.23298834 0.0364256 -0.17038478 0.11650952 -0.05463977 0.37321198 0.21517763 -0.27464867 0.259372 0.6725172 0.49447685 -0.2914996 0.027235974 -0.53705066 0.12523796 -0.20680809 0.17410296 0.13383064 -0.43199605 0.114730835 -0.17584294 -0.16133207 0.35673463 0.13394861 -0.10056588 -0.7053122 0.09272824 -0.012935444 0.5241719 -0.23227961 0.001536662 -0.21555208 -0.49711463 0.28398025 0.24646363 -0.34862143 0.17198323 0.29621407 0.49223465 0.006009925 0.0029014116 -0.160217 -0.14146794 -0.007940374 0.24597213
49 -0.08288419 0.29074752 -0.028563686 0.28832933 0.13944632 0.25247434 0.8242612 -0.5528942 -0.08162324 0.30010363 -0.17370304 0.2968843 -0.20955752 0.14350985 -0.51638126 -0.22961713 -0.03536355 0.15215789 0.34180477 -0.22206093 0.1985684 -0.6194123 0.16042049 0.00820792 0.18234497 -0.009484439 0.08965707 0.5802794 0.15160333 -0.14088883 -0.114802346 0.44528615 -0.31232524 -0.5595052 -0.15809101 -0.2465009 -0.16564833 0.24794151 -0.026000604 -0.18991008 -0.25563776 0.15928553 0.19167568 -0.028598387 0.51436687 0.122027285 0.27349225 -0.6117715 0.16736783 0.043141205 0.16847278 -0.14817548 0.24227129 -0.0364037 -0.028030483 -0.11584483 0.35484436 0.33419865 -0.057363905 -0.18923189 0.17701633 0.48391926 0.1592735 -0.18874744
39 0.25956687 0.052108474 0.034820206 -0.077906944 0.06664148 -0.057799026 -0.22465225 -0.020352209 0.28979662 0.15738556 0.21910398 -0.096574984 0.24610022 -0.097992234 -0.1704352 -0.159895 0.15723091 -0.3020308 0.023828685 -0.23351716 0.31906843 -0.042405196 -0.06782422 -0.23843686 0.3816256 0.2322326 -0.30524457 0.4734729 0.20649628 -0.05768057 -0.07569972 0.17535867 -0.2430651 -0.32213646 -0.14994538 -0.1194369 -0.19315603 -0.48619953 0.120574564 -0.250522 0.024756463 0.3498301 -0.2364748 -0.43349487 -0.25527576 0.37517518 0.27206403 -0.20751944 0.18756971 -0.07369241 0.64369285 -0.21640073 0.33439344 0.24236186 -0.06161609 0.52326006 0.12554196 0.68663055 0.0078138225 0.18361063 -0.24163342 -0.11026119 0.07140011 0.090177804
73 -0.103720605 0.09212788 0.0042191134 -0.5575201 -0.2609572 0.08927813 -0.039466035 -0.5354162 -0.19908084 0.12694752 0.013242753 0.5450882 -0.620462 0.16125736 -0.23187916 -0.3102081 0.11967679 -0.01591717 -0.027374169 0.04149128 0.25029337 -0.25486428 0.5414554 0.2605815 0.3389205 0.107285775 0.34994736 -0.037296873 0.061994065 0.06652344 -0.22813542 0.19342634 -0.029013311 -0.061725494 -0.005052725 0.2168657 0.17753893 -0.29934603 -0.014926553 -0.16182894 0.23906238 -0.22702724 -0.09915275 0.2055779 0.122175366 -0.5254325 -0.043228287 -0.087604254 -0.3419405 -0.03754482 -0.5232445 -0.39521608 0.34231517 0.38161018 0.015093959 -0.17952332 0.013147907 0.67773396 0.15514731 0.065351635 -0.3801593 0.2967797 -0.39639097 0.0697556
32 -0.05550965 -0.07216001 -0.42363757 -0.23231421 -0.14145297 0.19364789 0.14621617 -0.59643203 0.29905617 0.19923177 -0.08005129 0.19050975 0.39662555 0.052389544 -0.43936154 -0.35081038 0.21313588 -0.36458173 0.26106268 -0.06463151 0.36046696 0.3763725 -0.06865819 0.54885435 0.09715023 0.36515224 -0.1361785 0.08565087 0.06592051 0.24085382 -0.35339504 -0.019406158 -0.28458366 -0.05629526 0.015185296 -0.3575095 -0.12851982 -0.18010928 -0.123459734 0.11242446 0.09025623 0.06697312 0.4117036 0.007453223 -0.14155184 0.68463963 -0.08700237 -0.048213013 -0.07408898 -0.7024065 0.1892661 -0.40457782 -0.27326053 0.1544233 -0.10865443 0.2436214 -0.22917446 0.2925585 -0.51628655 -0.084791414 0.06491174 0.08738933 -0.35497946 -0.12326587
44 -0.1855083 0.051854733 0.050169498 -0.06590602 0.20300701 0.2721452 0.45356485 -0.2136741 0.18557885 0.34027958 -0.15723516 -0.055323873 0.29764435 -0.025952963 -0.57726127 0.06419726 -0.24486245 0.41388565 0.5224561 -0.22995393 0.37841502 0.10953432 -0.09183721 0.4959702 -0.16006862 0.00091176596 -0.023106862 0.4607196 -0.31457305 -0.048924204 -0.0044068773 -0.0044966233 -0.38129064 -0.58075714 -0.14366096 -0.021663856 -0.12060691 -0.10405119 0.1899042 -0.14936534 -0.27690035 -0.23965763 -0.03682124 -0.34399393 0.17667805 -0.059370626 -0.20831166 -0.52438927 -0.22256063 0.18119049 0.20249449 -0.5188215 -0.198601 -0.11540263 -0.08411888 0.1564361 0.30996564 0.61787754 -0.18192653 0.21479668 0.20095952 0.039182197 0.046225622 -0.26000953
48 0.43061173 0.35660252 0.2221802 0.39793435 -0.10097487 -0.1387836 0.09306383 -0.27341482 0.14998971 0.014808895 0.16932967 0.3553312 0.08799786 -0.2698066 -0.24702737 -0.04546457 0.27003303 -0.5417661 0.40315166 0.06686642 0.03926808 -0.026476914 0.25983706 0.10986836 -0.22061133 -0.20937377 0.46035266 0.10971818 -0.045969255 0.43685865 0.09423647 0.4851281 0.4340949 -0.044659138 -0.5462884 0.04576379 0.031146085 -0.16464084 -0.057111725 0.16774164 -0.013431823 -0.2697589 0.098153085 -0.17693076 0.122476995 -0.13987619 0.36855417 0.031159045 0.06195156 0.42024547 -0.15998904 0.7315718 -0.13729066 0.52439594 0.4745322 -0.2655756 -0.07808463 0.13797192 -0.015262412 0.49729773 -0.08413703 0.58056366 0.021343961 -0.27024078
76 -0.4491695 0.011259544 -0.090335876 -0.13079913 0.29529068 0.24639001 -0.279967 0.26795942 -0.2172835 -0.2183814 0.43881828 0.3422305 -0.40515655 -0.27847904 0.2745495 -0.10464591 0.25091758 -0.2945554 -0.09284518 -0.28936976 0.07079755 0.30583835 0.092644766 -0.15740228 0.38204426 0.31452873 0.44556704 0.31577685 0.18161727 -0.1814862 0.18622263 -0.08326314 -0.14299414 -0.52930653 0.019230919 0.034517292 -0.07021881 -0.25919226 -0.050270177 0.10568578 0.21560882 -0.09897771 -0.48399386 -0.1911703 -0.11956679 0.109746434 -0.046075504 -0.108305134 -0.49159223 0.19998176 0.13479708 -0.43523055 0.015262404 0.34735003 0.35249153 0.07310143 -0.07701006 0.5212969 -0.20039338 0.29800826 0.09004866 0.20778877 -0.24702725 -0.21537228
63 0.1452017 -0.19287813 -0.51943904 0.07132293 0.6831889 0.0115246875 0.17313832 -0.037774377 0.18721758 0.39168912 -0.0045243558 -0.07770422 0.12373453 0.042703617 -0.28899804 0.253285 -0.16515483 -0.05156652 0.42472085 -0.38073406 0.50101197 -0.01860587 0.05191812 0.21700989 0.27600035 0.3971002 -0.12613732 0.49013337 -0.08778496 0.052945323 -0.00095184735 0.024222437 -0.027471326 -0.38585895 -0.14048344 0.20763247 -0.3221107 -0.060874794 -0.15641345 -0.13624401 -0.13166048 -0.36554965 -0.25134927 -0.3789703 0.37563154 -0.0892343 0.2915292 -0.6466711 0.3679543 0.21637638 0.24509872 -0.045824073 0.026594033 -0.026977865 0.29544738 -0.21295373 0.24708262 0.73732555 -0.048082843 0.2636661 -0.23807521 0.087889 -0.27268097 -0.08989636
60 -0.37247023 0.17899768 0.2598365 -0.124932356 0.4855854 -0.017897071 -0.07563248 0.10935124 0.022701984 -0.06930567 0.8011345 0.023200482 -0.034478765 -0.37369925 0.20982854 -0.18316716 0.11251691 -0.3188101 0.30553207 0.31205225 -0.3042205 -0.047726754 0.15812634 0.09826179 0.12185434 0.18796353 0.23214456 0.113516204 0.5902789 0.18371505 -0.16565056 0.24298356 -0.4800809 -0.52414197 -0.17122795 -0.388186 0.12607771 -0.08993585 0.023351893 -0.16443358 -0.1603056 0.15915264 0.09922441 -0.4594824 0.08371246 0.034946278 -0.10625418 0.5096968 -0.39717218 -0.10032885 0.14500137 -0.36328152 0.10699573 0.58388877 -0.49357784 -0.112003654 -0.19874413 0.04164251 -0.119572155 -0.018248249 0.16430344 0.23541248 -0.08507736 0.06623013
10 -0.02694046 0.08473534 0.6119141 0.24214141 -0.17081936 0.0018388132 0.38358128 -0.42418483 -0.12937893 0.11493388 -0.18460152 0.32196924 0.41036895 -0.34356877 -0.09662785 -0.15841544 0.392498 0.1473463 0.063538276 -0.28628877 0.035120513 0.011539944 -0.10614361 -0.2534506 0.0011316381 -0.47529706 -0.12834114 0.15738103 0.12520766 -0.01740769 -0.01866003 0.42327255 -0.19356696 -0.38746485 0.020455837 0.068980105 -0.16294585 -0.2936444 0.23799248 -0.11035863 -0.021242457 0.30332348 0.4720404 -0.195263 -0.37583736 -0.099621885 -0.31355923 -0.03959121 -0.09987108 0.38302222 -0.029774632 -0.33494392 -0.05410689 0.15711913 -0.3222966 -0.2916646 -0.20190638 0.26595804 -0.049580626 0.07267565 -0.09138128 -0.26514864 0.23321076 -0.20524897
34 0.27369973 0.120025724 0.2623622 -0.048742097 -0.50392765 0.2961478 -0.4628027 -0.41989017 -0.43806037 0.04848729 -0.2810694 0.3794429 0.10090901 -0.187516 -0.39794064 0.061399262 0.06407264 0.10715038 0.017943867 -0.42468995 -0.16208158 0.22593996 0.22471146 -0.01697867 -0.106093906 0.17319489 -0.034775715 -0.11284747 0.28368473 0.7586274 0.082866974 0.17207357 0.17662394 0.045799617 -0.1234846 0.4206714 0.06955411 -0.20274493 0.49346367 -0.28854173 -0.14705491 -0.15716998 0.2352044 0.02617211 -0.43851423 -0.2754845 -0.09477854 -0.30071068 -0.4924262 0.34353304 -0.6153992 -0.40698624 -0.06499556 0.38327748 -0.52938306 -0.41961724 0.1022293 0.1097304 -0.25671548 0.3679863 -0.5581779 -0.0059680957 0.0043553025 -0.0708379
13 -0.0993245 0.05215985 0.12450659 0.18683384 -0.25097877 -0.081373766 0.09279456 -0.5416723 -0.5158989 -0.23389933 -0.013165596 0.12657641 -0.28558865 0.12900183 0.26553163 0.18308562 -0.051987544 -0.15974435 -0.43822712 -0.120814785 -0.09273322 -0.16395079 -0.08920416 -0.18699701 -0.31802157 -0.5403057 0.21573067 0.12560447 0.017747244 0.5068425 -0.08816082 0.5818272 0.32345277 0.08531286 -0.0064699356 0.670361 -0.0955274 -0.3016767 0.12518121 0.3049118 -0.040681608 -0.23083015 0.22197525 0.2291085 -0.3024903 0.08315677 -0.25420815 0.5778655 -0.12544328 0.57856053 -0.047721136 0.033326708 0.06887039 0.50757086 0.30823234 -0.22072217 -0.32445005 0.25068867 0.11990784 0.11506653 -0.14497463 0.3409969 0.09295038 0.15736106
66 -0.64625627 0.039400395 -0.086357735 -0.033496935 0.30219492 0.15809926 0.27195603 -0.062195268 -0.086243846 -0.21613073 0.45637462 0.12861946 -0.25071368 0.099302694 0.1967527 0.05160969 -0.06464291 -0.29663292 -0.17543858 0.03665065 -0.036269877 0.10445763 0.35247383 0.1967206 -0.33039495 0.0072264206 0.4004826 -0.014843461 -0.26200023 0.15541014 -0.50793886 0.30868822 -0.40397543 0.17531885 -0.08818805 0.03150921 0.055196047 0.12780784 -0.21906753 0.16024932 0.02788034 0.034872606 0.3054519 0.033051148 -0.16501693 0.12343674 -0.4187049 0.34950292 -0.47764918 -0.34762794 0.32280394 -0.4720105 -0.15017703 0.59700763 0.3764085 0.0825979 0.3657334 0.082034335 -0.40421122 0.06616449 0.03357602 0.56976765 -0.26072058 -0.33003998
47 -0.0027327118 -0.58439577 0.03734273 0.14645256 -0.009109569 -0.33759096 0.19196756 -0.10249268 0.14103648 0.18575376 0.052735373 -0.19483282 0.19691189 -0.10026528 -0.023576273 -0.4098389 0.49608663 -0.35802254 0.22483268 -0.2627216 0.3397646 -0.36160308 0.22506315 -0.15739456 0.32114387 -0.30054572 -0.47228128 -0.068957575 -0.11758064 0.4737209 -0.48878664 0.3578712 -0.3422368 0.121624485 -0.059953753 0.13960512 0.46882573 -0.39428768 -0.14431997 0.19312981 -0.079287 0.17454635 0.105098434 0.10182897 -0.124613 0.24861568 0.2107119 0.31390685 0.16143537 -0.033476084 0.18071586 0.2461392 0.22175692 0.077920504 0.48216787 0.592028 0.18019766 0.39638585 0.08477922 -0.020185621 0.15475257 0.22536929 0.063614756 -0.11620662
18 0.073355064 -0.0085035 0.12767263 0.45773682 0.0913719 -0.009462188 0.14393803 0.3087959 -0.12377807 -0.40397254 0.8125283 0.4959129 0.07019309 -0.34569785 0.2075252 0.2433707 0.2587106 -0.08173691 -0.09090405 0.1516065 -0.14415298 -0.024703091 0.83808243 0.040415112 -0.2651255 -0.26450595 0.37795672 -0.0433316 -0.36067504 0.23687312 -0.40664583 0.61054015 0.09608932 0.22289121 -0.47264892 0.6609901 0.31861475 0.11444413 0.0013448951 0.12103367 -0.1981069 0.013092102 -0.022753153 -0.3600215 -0.54453635 -0.48419258 -0.046436064 0.37663302 -0.6297077 0.18830378 -0.2535906 0.14994094 0.03804937 0.4237734 0.36606246 -0.37034437 0.5071541 0.3980108 -0.15096003 -0.09098016 -0.28870595 0.9542905 0.12621094 0.075369164
58 0.09612178 -0.4050176 -0.21294482 0.0066159596 -0.20125288 0.07978894 -0.107742265 -0.38192952 -0.26268822 0.3321689 -0.35799444 -0.5094301 0.43028256 -0.15847391 0.20952682 0.2967902 -0.17996587 -0.07793336 -0.055090357 -0.1720476 0.2466427 0.19934139 -0.3476661 0.048373666 -0.33901274 -0.11582079 -0.25721082 0.1549777 -0.3966587 0.2895229 0.103511505 0.3911868 0.020984234 -0.5703892 0.08551721 0.37620893 -0.19896556 -0.5723469 0.43031275 0.33172438 -0.2564347 -0.46922246 -0.16812731 -0.03422503 -0.02163215 -0.03193243 -0.0732479 -0.37793902 0.29460794 0.34413 0.044576768 0.0104053505 -0.21011169 -0.10378254 0.2710702 -0.17324387 -0.37967592 0.52454025 -0.0046570357 0.38479805 -0.013204138 0.011859365 0.009906899 0.20307016
29 0.0011399398 0.049339507 -0.18155797 0.07396582 -0.154304 -0.36137754 -0.22631048 0.1840856 -0.2579172 0.5254996 0.124216266 -0.24461463 -0.2706679 -0.15869488 0.507047 0.32585588 -0.14353888 0.02837227 -0.38812745 -0.21885157 0.052496977 -0.033185005 0.21100329 -0.17727865 0.08790668 0.13081373 0.1479572 0.2144471 0.10153964 -0.098083176 0.13161899 0.3959164 -0.22307453 -0.21675839 -0.2526397 0.32288742 -0.09399593 -0.13819183 0.056469735 -0.32856807 -0.1433794 -0.25840467 -0.14095102 0.04094689 -0.19068624 -0.59155047 0.08091698 -0.4905741 0.49406016 0.53554213 -0.50133765 -0.07591237 0.26997727 0.391574 -0.0016953713 -0.6109607 0.6115332 0.91067624 0.36114582 0.31955498 -0.6540233 -0.08128279 -0.2670961 -0.09497969
75 -0.41306874 0.09496053 0.07382584 -0.09490565 0.0033937474 0.077728614 0.08394347 -0.2731151 -0.07639659 0.21318646 -0.06476351 -0.20132096 -0.1052806 -0.06120228 0.5091326 0.09464764 -0.22621252 -0.5770708 -0.6732225 -0.21646431 0.26763567 0.43027 0.095469736 -0.27394536 -0.2123841 -0.1559842 0.32967344 0.16109951 -0.3447386 -0.19377643 -0.13705657 0.39196408 -0.10220416 -0.161946 0.21677117 0.13490856 -0.28962243 -0.5225791 0.087465204 0.28378868 0.39227083 -0.04811793 -0.36660126 0.114983596 -0.33216357 0.21031019 -0.34978014 -0.12778297 -0.15451224 0.2070081 0.43921095 -0.1952706 -0.38100508 0.34633756 0.43174258 0.044833835 -0.029642932 0.53206897 -0.07051277 0.21831118 -0.18911183 -0.18265969 -0.1887147 -0.34479454
57 -0.15679708 0.008502996 0.16829857 0.2753366 0.088966034 -0.47368816 0.093733005 -0.36756086 -0.10674159 0.40766 -0.13612641 -0.3141782 -0.14008386 0.25415954 0.5030726 -0.15642035 -0.16064015 -0.21423483 0.4406476 0.16799502 0.11778851 0.39314657 0.7051384 0.08956149 0.31313327 -0.048561405 0.5831652 0.13882062 0.07533041 0.513841 -0.30496392 0.20441374 -0.51470643 -0.05533502 -0.12559165 -0.4720908 0.074498445 0.41196325 -0.02624415 0.031353373 0.20009941 -0.11238558 0.22633523 -0.28842503 0.26574817 -0.5801191 -0.25183818 -0.2714137 0.121115364 -0.17529398 -0.24567871 0.13990834 -0.2348668 0.48939475 0.53520215 -0.6185156 0.31749395 0.04483358 -0.2942694 0.62459725 -0.066145286 0.04938393 -0.35387465 -0.4109202
50 0.2901992 -0.093754016 -0.16836222 -0.16534328 -0.41748253 0.25091866 -0.25816986 -0.04999829 -0.07282648 0.007118372 0.09421643 0.001208932 0.48264554 -0.26405904 -0.3795885 -0.17488508 0.054793656 0.081946135 0.14834125 -0.16811761 0.06537002 0.01734023 0.07324349 0.0650394 -0.044487655 0.23648047 -0.2192854 0.2364113 0.13100098 0.4678895 -0.045091555 0.20642902 -0.0038718327 -0.14294012 -0.26998278 0.3223648 0.002843538 -0.5430343 0.39458016 0.08667544 -0.2962444 0.07056135 -0.023071619 -0.17880365 -0.61309135 0.13933066 0.019139528 -0.17922887 -0.28036392 -0.118958436 -0.47586876 -0.19044253 -0.05644905 -0.025387807 -0.29929093 0.015124675 0.014257226 0.47611427 -0.2337984 0.1288849 -0.19996297 0.09777711 0.07781355 0.16555208
72 -0.028450157 0.042833585 0.1343401 -0.01720048 -0.22076604 0.045032114 0.05281484 -0.46383724 -0.14059024 0.28022003 -0.019640561 -0.11895584 0.11405431 -0.14668177 0.011907289 -0.037076604 0.045790374 -0.2195277 -0.04174442 -0.21446487 -0.11351019 -0.06602112 -0.050239846 -0.13385768 -0.06813451 0.11112429 0.008703974 0.30141115 0.028818835 0.10180761 0.17025721 0.30089864 -0.3676866 -0.43794855 -0.0716223 -0.101520345 -0.22752553 -0.13843194 0.06695487 0.048503954 -0.18716313 0.04085562 0.30298343 0.13647857 -0.10674007 0.54487616 0.08955365 -0.15193917 0.2650023 -0.054589987 0.07058416 -0.026947353 0.12663467 0.48639342 0.062550396 -0.42527264 -0.34248847 0.21043472 -0.0983079 -0.14603713 -0.11749216 0.049820356 0.101645194 -0.019585494
33 0.11272275 -0.16810273 0.079939246 0.48800972 0.01183813 0.08754734 0.31173807 -0.42088574 -0.04430227 0.120030016 0.14272566 -0.42234877 0.12647362 0.13399567 -0.010340906 0.24312289 -0.30867314 -0.051146824 0.13483606 0.20993696 0.22751005 -0.24166575 0.02009864 0.019565932 -0.2892363 -0.02872848 0.04280471 0.3010304 0.21967018 0.34840423 0.0017389257 0.35375428 -0.08532533 -0.15560839 -0.20692492 0.087792195 -0.05835364 -0.16253473 0.007983629 0.06346219 -0.3846481 -0.05275408 0.22214536 -0.28179577 -0.017622834 0.01337107 0.33180508 0.29506582 0.05817665 0.2898458 0.27459124 0.16935028 -0.122797936 0.38729724 0.0076911324 -0.22828044 -0.24418484 0.20079774 -0.0037058352 0.13612838 0.3556255 0.046868656 -0.030289466 0.080212325
5 -0.30333593 -0.32619566 -0.26977772 -0.27715966 0.06272073 0.021476528 0.2992904 0.03664837 -0.08660041 0.10536552 0.5903001 -0.121125236 0.18755755 -0.21822645 0.28213802 -0.48355865 0.01388002 0.031511642 0.34952366 0.3805822 -0.09818363 -0.16616164 -0.109627165 0.115561105 0.017269893 0.09225969 0.05224642 -0.0013852271 0.3691287 0.4187782 -0.09568734 -0.02232963 -0.85425967 -0.6298517 -0.32555625 -0.27697656 0.069067225 -0.16664836 0.06720127 0.3015779 -0.32679644 -0.06969138 0.080393426 -0.09363307 -0.24395928 0.43068412 -0.24354231 0.5656053 -0.0829057 -0.45400232 -0.5708577 -0.21869855 -0.13063914 0.076198205 -0.3067242 -0.31564292 -0.3290544 0.3258285 -0.04650232 -0.100838974 0.22997096 0.13951862 -0.25365353 0.278952
14 -0.25485608 -0.5744858 -0.4706429 -0.13346565 0.013736632 0.12666985 -0.08350521 -0.020590216 -0.19704677 -0.31213373 -0.005223502 0.40573913 -0.012749951 -0.08640548 0.22802393 -0.05099954 0.42312136 0.37706468 -0.19271655 -0.6522349 -0.018038735 0.18743256 -0.08818855 0.59290326 0.13792367 0.3968851 -0.15190211 0.30512455 0.38523623 0.08736112 -0.069252685 -0.027438974 -0.45361918 -0.43827444 0.40789467 0.4958507 0.14645676 -0.37936428 0.06527818 -0.045107067 -0.17998442 -0.34858975 0.102922305 0.35445148 -0.29442766 -0.1939566 0.44179028 -0.07625613 -0.29311275 0.3325972 -0.59751326 -0.64088655 -0.24337395 0.18016292 0.07828701 -0.80015427 -0.05788105 0.21060124 -0.11431563 -0.23347822 0.04186124 -0.11415448 0.09504131 -0.15939392
40 0.09648392 0.45788956 -0.43797746 0.8012428 -0.1775257 0.29205817 0.3472441 -0.5764008 0.08845443 0.19519813 0.16709921 0.32232305 0.024089504 0.0040907427 -0.035217993 -0.1392513 0.4856327 -0.3329142 -0.11244879 -0.17295505 0.52295285 0.069211476 -0.22349632 -0.26117072 -0.026226103 0.3636737 0.04790607 0.25119326 0.5521457 0.06516383 -0.18732636 0.49522877 0.49881935 0.21021752 -0.35394922 -0.48821372 -0.08099085 0.13351849 -0.33518982 0.27308953 0.10611637 0.69186074 0.2817687 -0.11858946 -0.0104532875 0.6327743 0.058081266 -0.2244597 0.29209104 0.18378961 -0.04587384 -0.059915986 -0.054801606 0.21829498 -0.22768332 0.17444904 0.13002732 0.15942419 -0.3220134 0.24135259 -0.09839642 0.5299969 -0.4147351 0.052531168
62 -0.107696675 -0.22002545 -0.5394057 0.43328026 0.20056117 0.61333174 -0.041607596 -0.35883376 0.19113767 0.03768916 0.31350437 0.12364286 0.02007473 -0.10332616 -0.14367238 0.016246479 0.5321276 -0.52656436 -0.10168703 -0.32597136 0.64482594 0.04050615 0.027793707 -0.13088664 0.15978073 0.8163134 -0.17276026 0.13058311 0.47735733 -0.19073056 -0.21512616 0.103414446 0.2351936 0.022971243 0.05932292 -0.2304201 0.04721883 -0.3074356 -0.26109076 0.080289856 0.10006815 0.5471778 0.002400575 -0.0857197 -0.01819435 0.7364385 0.5820553 -0.108815126 -0.06335665 -0.045647718 0.31587717 -0.31168747 -0.11646234 0.135065 -0.18644485 0.5813542 -0.24595647 0.36219594 -0.30266887 -0.123368464 0.27854347 0.27579528 -0.38123116 -0.06760398
59 -0.1837263 -0.45271227 0.011589141 -0.071487464 -0.23312517 0.2521439 -0.17072938 -0.37073842 -0.31012428 -0.040835068 -0.31254417 -0.01177953 0.13999198 -0.038592443 -0.08736445 0.15974206 0.039627656 -0.37984976 0.09726181 -0.19630782 0.3449059 0.2552997 0.16747311 0.20530455 -0.08434897 -0.10823055 -0.1842718 -0.089787506 -0.51157665 0.09679781 -0.3569001 0.33465764 -0.032822754 -0.26642913 0.1650201 0.305417 0.30090287 -0.37754416 0.18288015 0.17967339 0.048247647 -0.13726223 -0.09910953 -0.16609885 -0.24669065 -0.21193014 0.16515553 -0.20886798 -0.3008651 -0.14379333 0.45399418 -0.16089332 -0.201989 0.17277059 0.46089256 0.4570826 -0.027199594 0.39646274 -0.32429996 0.13857883 0.058566317 0.2009472 0.16462234 -0.10335166
54 -0.16523917 -0.58653194 -0.12966225 -0.6594348 -0.19861707 0.2028491 0.28524688 -0.06504874 -0.21802853 0.28914887 -0.002744961 0.090047285 0.17951821 -0.2112023 -0.13940106 -0.24755377 -0.35274825 -0.14841631 -0.017216401 -0.07332022 -0.12940668 -0.31324285 0.29991046 0.011369225 -0.011637758 -0.15649675 -0.3563382 0.22994861 -0.1416774 0.11470208 -0.3311234 0.27494147 -0.63181186 -0.4756621 -0.33344832 0.39611527 0.14049442 -0.42942008 0.45857772 -0.06482598 -0.3496455 -0.19078639 -0.23701903 -0.43770152 -0.3672859 -0.13579327 -0.28089786 -0.23866409 -0.07685005 -0.69692886 -0.20518658 -0.048370674 -0.08680362 -0.25589445 -0.10771645 -0.23949115 0.2480912 0.6136116 -0.12584409 -0.24923444 -0.2813812 0.045477577 0.047285434 0.38170433
20 0.036916886 0.071431115 0.263932 0.091368586 -0.050159212 0.18348221 0.15289596 -0.14846559 -0.063803434 -0.0019718704 0.32034886 0.20650667 0.04198106 -0.39096108 -0.5818215 -0.5174856 0.3844534 0.040216416 0.6419796 -0.1253792 -0.492058 -0.34001377 0.38878572 0.12771934 -0.012583657 0.27284032 0.15895407 0.029741324 0.30804807 0.9377978 0.073607825 0.039097 -0.20089442 -0.14435786 -0.6624662 -0.13081554 0.29450154 0.22004408 0.0892255 -0.008503424 -0.40430576 -0.049320754 0.47617385 -0.027566591 0.102856286 0.34878147 0.039991476 0.05036205 -0.53362286 0.027266845 -0.609668 0.025025826 0.09793009 0.42100844 -0.04164844 -0.37396532 0.035297498 -0.3593306 -0.42438188 0.062908426 0.094486095 0.7582914 0.14901885 0.044576228
8 -0.48527625 -0.09806474 0.24973851 0.5992171 -0.114695065 0.0427754 0.64269096 -0.5394375 -0.5675772 0.27128446 -0.26371703 -0.48563322 0.1713093 -0.07343934 0.1261052 -0.1661734 -0.44073996 0.08665615 -0.10561402 -0.11826467 -0.06702678 0.05762286 0.61314815 -0.2028467 -0.37796062 -0.17878571 0.48284575 0.19335918 0.0072856974 0.42956787 -0.009714175 0.09922687 -0.27093035 -0.34396088 -0.11657665 -0.11181879 0.057642955 0.12733637 0.386188 0.21815012 -0.0006559868 -0.15674382 0.39307606 0.12650652 -0.010998734 0.04859509 -0.39674893 -0.32190907 -0.5482081 0.09706799 -0.26690716 -0.22350661 -0.6095238 0.037549224 0.26783818 -0.6872705 -0.16668499 -0.2726623 -0.60185 -0.018878726 0.33062577 0.21591541 0.09455423 -0.17605108
36 -0.04193269 0.3565017 0.15063334 0.4420003 0.010612987 -0.19272524 -0.0094065955 -0.039725263 0.15650383 0.014084118 0.24356446 0.046692576 0.29422253 -0.31569552 0.33820784 0.1188914 0.3206754 -0.050506312 0.17289081 0.052651722 0.3467397 0.13887893 -0.23339434 -0.088139 -0.41242844 -0.5163635 -0.010437821 0.09728021 -0.060643956 0.09028506 -0.44680253 0.7671239 0.3281157 0.07807902 -0.10399089 -0.01085856 0.36050645 -0.5809222 0.13675313 0.22035715 0.09991444 0.17932388 -0.075476736 -0.24136159 0.002733896 -0.43275335 -0.42983875 0.20069478 0.011162458 0.7900991 -0.0156173445 -0.09877899 -0.24019781 0.28984135 -0.017892905 0.28233856 -0.007329469 0.3321926 0.1942571 0.7214362 -0.04966768 0.2671469 -0.031094382 -0.10627212
69 -0.4698621 -0.46448392 -0.10866293 0.2341903 -0.31510743 0.17686434 -0.1391691 -0.46914557 -0.37490264 0.31468222 0.10414047 -0.6708951 -0.24835926 0.22520928 0.485712 0.14851217 -0.29686517 -0.24867608 -0.2914579 0.11067173 0.14585763 0.16919686 0.20117861 -0.1061305 -0.13701132 0.17708147 0.21615815 -0.053542793 -0.028752938 -0.025391188 0.10659814 0.1330296 -0.3052718 -0.49905497 -0.1697725 -0.25747955 0.22271642 -0.13436382 0.21369037 0.1692078 0.051551502 -0.24388273 -0.012422552 0.054579172 0.11963872 0.23237629 0.054124646 -0.18321565 0.017501721 -0.22470655 0.06755964 -0.09343293 -0.527829 0.31117693 0.25755376 0.069494665 -0.21545835 0.28429344 -0.31383038 0.45274553 0.49717182 0.056504335 -0.1623749 -0.073644176
55 0.16892427 -0.4595767 0.036674816 -0.18324365 -0.07219889 0.13726187 -0.6575873 -0.5178536 0.40335563 0.4648703 -0.15961352 -0.16385357 0.14008576 0.14197753 -0.23464285 0.2147413 0.19720495 -0.6342584 0.062495932 -0.108838804 0.21865405 0.22226033 0.36366338 0.3266296 0.005007002 0.50132406 -0.27709645 -0.36923653 -0.17350441 0.5795286 -0.16745797 0.10840099 0.022001669 0.20940518 -0.004836011 0.23876567 -0.01134059 -0.25658032 0.07368547 -0.33224356 0.21632434 -0.55963564 0.17328265 0.15250947 -0.11565624 0.045638148 0.46654376 -0.15868437 0.19916658 0.11317419 0.010797055 0.2067118 -0.21739496 0.47947815 0.18995267 0.034823466 -0.0031237062 0.37532467 0.049419977 0.594571 -0.47560397 -0.14046413 -0.24333887 -0.45421693
67 0.26230136 -0.29354605 -0.033946883 0.19154678 -0.3656616 -0.37778634 -0.10921972 -0.57741755 -0.31086096 0.14535621 -0.16860658 0.1553051 -0.3845467 0.20124012 0.39321584 0.10141818 0.2595724 -0.27579707 -0.24988233 -0.19778338 0.23651846 -0.12090157 -0.31263998 -0.43764243 0.2573222 -0.4330056 -0.07146243 0.11352608 0.20435517 0.20322624 -0.104785725 0.3668382 0.11717703 0.028569056 -0.2321289 0.26322636 0.09610622 -0.48319504 0.007102271 0.12230552 0.24066104 -0.03272372 0.080026865 0.17535862 -0.20066155 0.18648596 0.12055266 0.33377764 0.69676346 0.44327176 -0.06695032 0.23654294 -0.09577349 0.4842321 0.46477386 -0.15257424 -0.47833756 0.408346 0.1860573 0.60636026 0.054218 -0.15671574 0.014396875 0.031835817
35 -0.21340564 0.45193732 0.051575113 0.11394206 0.5616658 -0.39275777 0.08460836 0.13422585 0.09448235 0.43852013 0.03651543 0.404062 0.123664774 -0.22198592 -0.09115434 -0.14146987 0.08214692 -0.5098796 0.09179715 -0.72752243 0.21839261 0.52058 0.02904002 -0.52373534 0.5113232 -0.2468863 0.0449637 0.5272242 0.17202142 0.087660685 0.022739686 -0.085257724 0.033312965 0.023388384 -0.1674219 -0.08076809 -0.366436 -0.14107831 -0.03373359 -0.19661304 0.40339994 0.17933844 -0.122477606 -0.47166607 -0.3229044 0.1924334 -0.6549675 -0.35657012 0.10012999 0.3081495 0.64055544 -0.14993621 0.20228587 0.30855885 0.039798792 0.416003 0.5257218 0.7138622 -0.08343509 0.50618 -0.72887635 -0.19775426 -0.10620931 -0.30945313
0 -0.6232565 -0.6086245 -0.16616678 -0.15144382 0.27225217 -0.057266675 0.25320548 -0.104411244 0.027674668 0.2197966 0.029771077 -0.11260677 0.055497333 -0.06854519 0.50615925 0.012212879 -0.0075788554 -0.06074332 -0.40741313 -0.2052333 0.19190475 0.3000457 0.15867446 0.30893663 -0.26711947 -0.078369856 -0.23564433 -0.06728231 -0.11810319 -0.117393315 -0.39258364 0.3300941 -0.4481836 -0.040378425 0.21969438 0.48923832 0.20685026 -0.4764593 -0.026940705 0.12823553 -0.006991436 -0.37829688 0.097174816 0.08681481 -0.25934264 -0.2978612 -0.3455519 0.1338815 0.0063991067 0.21429333 -0.1382005 -0.43464386 -0.5180379 0.0727814 0.07378931 -0.46920213 0.05876521 0.39978948 0.09140134 0.033744004 -0.07227457 -0.25211412 -0.3186074 -0.04935835
38 0.1053547 0.16557924 0.22284214 0.12095688 -0.030401006 -0.027509138 -0.102626815 -0.60938567 0.17230904 0.027712092 -0.14935292 0.1793144 -0.030527541 0.21801628 -0.6212145 -0.17019668 0.113187164 -0.43082187 0.039634123 -0.3741315 -0.06978631 -0.0051243375 0.36430877 0.0811872 0.14482656 0.40099314 0.090587415 0.09490044 0.45887443 0.6123192 -0.08398829 0.16561319 0.06289272 0.100897774 -0.005296734 -0.11307443 -0.16608539 -0.023967545 0.02303306 -0.41866437 0.2411004 -0.020745272 0.6368646 0.287005 -0.1454955 0.35234132 0.4540962 -0.027234426 -0.21996579 0.18253113 0.39710063 -0.11453472 -0.018491853 0.6975327 -0.11091076 -0.030079467 0.025241895 -0.16021581 -0.35492328 0.11828128 -0.1503619 -0.073684625 0.12596644 -0.49887085
26 -0.15328243 -0.010884578 0.028745174 -0.14760694 0.5181236 -0.19701388 0.29683882 0.10414023 0.30820644 0.24617028 0.63329124 -0.13824768 0.33258325 -0.30673695 -0.21787088 0.10215924 0.04690694 0.5414223 0.12192121 -0.023441266 -0.12472582 -0.055480596 -0.38174987 0.482461 -0.24097319 -0.19667889 -0.3086784 0.2392198 -0.25462267 0.10223991 -0.22071715 0.17211178 -0.30246726 -0.32491648 -0.4176956 0.1688041 0.23321089 -0.42699975 0.10587245 -0.22145362 -0.3524525 -0.24923784 0.04033579 -0.05149302 0.20160368 0.33642504 -0.35070983 0.06897165 0.04548286 0.7099243 0.33336687 -0.5614988 -0.15181881 0.3196898 -0.20425542 -0.19953758 -0.033153735 0.2925954 0.03828401 0.26649058 0.20099644 0.11756228 0.2744399 -0.009045569
42 -0.24438234 0.15093115 -0.035560645 0.66416854 -0.119345434 0.42820635 -0.20509653 -0.25416976 0.10623771 -0.06805387 0.10449404 0.29916987 0.11915036 -0.14846826 0.24377608 0.1426666 0.5380454 -0.38967317 -0.35388762 -0.33638918 0.22638181 0.3722786 0.048399445 -0.09372388 -0.2048911 0.4768094 -0.02466191 -0.041766863 0.35522243 -0.19967954 -0.09351437 0.63412356 0.19772102 -0.08237123 0.17507866 -0.038098328 -0.044085678 -0.039781976 -0.09093758 0.013147449 0.17535438 0.23898737 0.21939382 0.09142436 -0.31479746 0.18930894 0.27086732 -0.11043051 -0.144878 0.43380183 -0.003195818 -0.27172345 -0.33372265 0.331116 -0.26862457 -0.025168985 0.15630718 0.19425072 -0.1649668 0.13980868 -0.23382534 0.19672652 -0.28580713 -0.32119793
9 0.10804769 -0.05338355 0.5897702 0.0885009 -0.077717595 -0.034018736 -0.22561117 -0.2907172 0.28114307 0.40008202 -0.15594886 -0.36680108 0.25905436 -0.40316576 -0.31200245 -0.10150353 0.5757861 0.075101726 0.4457042 -0.12764369 -0.19640543 -0.3323046 -0.09712421 -0.15471365 -0.045218565 0.12376517 -0.6035765 -0.30752775 0.13034588 0.44685552 -0.12760225 0.49897563 -0.22838503 -0.30244553 -0.1392763 -0.024122585 0.41704535 -0.4242891 0.3316107 -0.32463083 -0.18859328 -0.16458297 0.34185505 0.2754524 0.26800996 0.22249812 0.19427876 -0.0073763453 0.2473936 0.771348 0.029327795 -0.16631953 0.108127385 0.4743077 -0.2751353 0.26322374 -0.25440308 0.014817374 0.27666178 0.47489014 0.22038692 -0.10310622 0.26681075 -0.2406577
25 -0.18117301 -0.3824946 -0.42075074 0.4866267 0.21209046 -0.13393871 0.12243926 0.002004218 -0.14304385 0.1743257 0.58417094 -0.033453323 -0.014054768 -0.13253 0.27913168 0.44033325 0.07876964 -0.39545548 -0.21866083 -0.10083739 0.2342139 -0.24196184 0.19203773 -0.101316266 -0.13527724 -0.12007525 -0.06559347 -0.040745124 -0.17999583 -0.25789383 -0.08999168 0.50694823 -0.004488722 -0.12073392 -0.11534493 0.20386073 0.056341875 -0.16684248 -0.30782893 0.010885381 -0.18715815 -0.12685463 0.15954128 0.008977334 0.048156314 0.023672557 0.26045698 -0.00090477 0.41531518 0.043498237 0.18235599 0.27219725 -0.09001851 0.37663957 0.28750226 -0.17983593 -0.03470629 0.64778453 0.11346221 -0.014080171 0.015294747 0.38782698 -0.20428659 -0.26903445
51 0.059988447 -0.15753962 -0.064681105 -0.038032714 -0.24014053 -0.16559243 0.3106071 -0.5674168 -0.016673652 0.1674398 0.12125464 -0.22724158 0.37380055 0.19188014 0.1975872 0.15858501 -0.39174017 0.22582303 -0.11439475 0.3173515 0.062782876 0.23614958 -0.041122954 0.30350462 -0.3790821 -0.4476522 0.021251524 0.20533378 -0.25527865 0.41516215 -0.3082613 0.25733456 -0.23583238 0.005106408 -0.2280102 0.29507908 -0.143074 -0.3013655 0.3542067 0.11810434 -0.1590024 -0.3138187 0.23590885 -0.21186607 -0.26733637 0.17096597 -0.61036897 0.3492875 0.058222782 -0.03896326 0.05792957 -0.17992538 -0.4443087 0.21984975 0.049430158 -0.37337425 -0.27327463 0.41351846 -0.08757154 0.28666314 0.11533941 0.042054404 -0.055312365 0.28276837
46 0.08488577 -0.23992081 -0.047666706 0.15847398 0.08091597 -0.01264403 -0.16453801 -0.42509323 0.11031848 0.26091716 0.06455704 0.056921303 -0.32031763 0.4016629 0.19948015 0.28264695 -0.06325413 -0.15463442 -0.48792526 -0.0151895275 0.07545704 -0.33313018 0.2874 -0.35658485 0.25741637 0.1833962 -0.31371835 0.18956691 0.8226351 -0.026683938 -0.30244294 0.35726 -0.067224465 0.2588055 -0.17708747 0.5071826 -0.24930379 -0.18540902 0.18533406 -0.7327962 0.117840216 0.0066421735 0.31020752 -0.25465414 -0.40149444 -0.10965124 0.25785577 0.37780753 0.44678497 0.27127466 0.09602471 -0.195104 0.030899163 0.38919085 -0.4736542 -0.065006934 0.18068686 0.66952544 0.39551434 0.3172591 -0.34069 -0.41686592 -0.15172753 0.19460458
45 0.060249995 0.017546643 -0.18028642 -0.1532769 -0.14992526 -0.36452758 -0.15776516 0.1251516 -0.31864572 -8.2740604e-05 -0.16561197 -0.30395576 0.015796266 -0.13360673 0.2655859 0.14437573 -0.22843878 -0.05158838 -0.13563247 -0.60789037 0.11641152 0.2156719 -0.5353057 -0.16044964 0.10529074 -0.27290794 0.013422571 0.73508066 -0.16241015 -0.058870375 0.049164273 0.39833692 -0.22592048 -0.4176035 -0.04041069 0.20506781 -0.07870796 -0.7536041 0.18647824 0.23655677 -0.18029568 0.121675715 -0.34980413 -0.17603956 -0.2799784 0.040635794 -0.18826637 -0.20300129 0.24193959 0.21469015 0.482356 -0.3547902 0.06390474 0.2720332 0.42636022 0.22526366 0.085824706 0.5470778 -0.23511727 0.40907153 0.19892558 -0.1841916 0.30267388 0.0424434
37 -0.38986275 0.14204852 0.03823007 0.049316365 0.1753147 0.08626523 0.14220592 -0.4628602 -0.4400814 -0.4200182 0.51464254 -0.022836654 -0.39730945 0.08977896 0.25786492 0.09340477 -0.14569722 -0.60739106 -0.42550448 0.12850367 -0.1907456 -0.38684362 0.1301926 0.25018355 -0.19971079 -0.0918428 0.44894204 0.13695355 0.08265198 0.037450004 -0.17761047 0.5349088 0.014447934 -0.59101826 -0.007537035 0.04977849 0.034201045 -0.18843259 0.05173446 0.05335878 -0.028992273 -0.043056052 -0.15949665 -0.09531939 0.17833415 0.2672894 0.5155586 0.34981513 -0.2647698 0.016239269 0.66299367 -0.0056491885 0.049136896 0.57756853 0.4018785 0.07919937 -0.21249159 -0.03657796 -0.16155817 -0.19952857 0.2534992 0.7050222 0.4406263 -0.022454845
23 -0.585102 -0.40749037 -0.14216769 0.69908357 0.59442717 0.37089458 0.22058342 -0.26240802 -0.11569733 -0.2797173 0.13028021 0.106571674 -0.39330342 0.10637096 0.23811558 0.04068695 0.49139163 -0.41947412 -0.19438949 -0.46288648 0.34897894 -0.24732964 -0.010836326 -0.36732098 0.120078534 0.20752063 0.08674186 0.14375356 0.4908552 0.1428188 -0.11666812 0.013018952 0.018621529 -0.17991877 0.48908338 0.017177515 -0.03434239 -0.13006185 -0.23634492 0.22282521 0.18674836 0.058656327 0.16266613 0.31318194 0.22969449 0.40878305 0.35575116 0.44381392 -0.4481734 0.54641694 0.56630105 -0.30248734 0.014448834 0.36938143 0.41435054 0.5040818 -0.4009097 0.033051345 -0.09054747 0.017050425 0.6875318 0.37941074 -0.11333784 -0.29576215
16 0.40788746 -0.022500034 0.046776276 -0.19362916 -0.83177376 -0.12203707 -0.20972274 -0.7124586 -0.23240048 0.45814952 -0.37157944 -0.2605957 -0.2461494 0.41127175 -0.26559895 -0.014094171 -0.31710994 0.1374824 -0.2641896 0.14869522 0.3791178 0.0032925026 0.41717568 0.36691567 0.29256776 0.26991737 0.029383257 -0.0025687711 -0.22053613 0.041866817 -0.06423813 0.3058417 -0.31483552 -0.16291036 -0.28683484 0.10039385 -0.10096595 -0.16496174 0.12217152 -0.44536242 -0.024377143 -0.11613753 -0.008333462 -0.021282641 -0.25133696 -0.2633022 0.3876887 -0.6146172 0.13024512 -0.23666202 0.032659724 -0.38225672 0.032659326 0.2991455 0.112109445 -0.08745999 0.42784196 0.7858545 -0.022138402 0.27174234 -0.25867933 0.016088037 -0.07582847 0.25944227
65 -0.01963782 0.14220263 0.40694487 -0.08045039 0.27450332 -0.45624447 -0.12974045 0.26161584 0.26724574 0.31319496 0.7267372 -0.62217385 0.028513012 -0.29505664 0.13009125 -0.069310136 0.11565404 0.17394285 0.16906829 0.027267102 -0.47400287 -0.14511847 -0.16476011 -0.06612952 0.04497148 -0.03803714 0.036516316 0.17642835 -0.008908183 0.6784886 -0.011288042 0.050426994 -0.46745 -0.10694998 -0.74391425 -0.17904088 0.1115358 -0.17044225 0.16996638 -0.2162888 -0.25570142 0.043653667 0.13401443 -0.06276111 0.001270168 0.6854372 -0.18901092 0.23725997 0.16005626 0.67425126 0.11362516 -0.035610244 0.011192789 0.7802987 0.14093018 -0.18465015 0.028755277 -0.0060205907 -0.04998521 0.6573109 0.24461769 0.051144116 0.40798935 -0.29704982
27 -0.12955043 0.07976036 -0.08619849 0.35211092 0.46896046 0.44847494 0.79393464 -0.49574533 0.23298879 0.085874885 0.12143717 -0.11623344 0.096853755 0.23481409 -0.3722486 0.15813754 -0.44815975 0.14854819 0.0799658 -0.027087266 0.10271318 -0.24983785 0.06771882 0.05334729 -0.3949102 0.11943836 0.11260003 0.5147346 0.3840332 0.046294965 0.02787955 0.17184104 -0.13392355 -0.3185507 -0.22119373 0.009308516 -0.42964783 -0.033281885 -0.005976677 -0.14402516 -0.2766681 -0.044768766 0.3563587 -0.19535097 0.042311348 0.27635 0.11557054 0.04071029 -0.07730654 0.3347348 0.3348293 -0.18452878 -0.4740586 0.28453115 -0.35800904 -0.42650285 -0.118963964 0.16773589 -0.14020513 -0.035940047 0.331142 -0.2004942 0.08704465 -0.07105592
30 -0.05645559 -0.05290425 -0.5014436 0.22240044 0.053081557 -0.3341357 0.6094374 -0.45727772 -0.08727532 0.5276503 -0.46780187 -0.38134083 0.13829651 0.2704065 -0.1463861 0.020320643 -0.47688237 0.1572396 0.5828299 -0.14400348 0.49822778 0.10084576 -0.09830086 0.5437302 -0.23092781 -0.18062833 0.17333898 0.37923178 0.03822059 0.4896918 -0.07611018 0.16650872 -0.15642814 -0.027847076 -0.16796824 -0.15969254 -0.020329345 -0.02047055 -0.25386384 0.2846596 -0.31300873 -0.34134167 0.45785555 -0.0068398775 0.3322096 -0.39850312 -0.14870124 -0.29151186 0.40802002 0.08199999 -0.39324147 0.026858546 -0.4036993 0.1539302 0.23536997 -0.47858125 0.16743213 0.29852492 -0.21873118 0.4365996 0.19018446 -0.09723513 -0.37525898 -0.32446247
70 -0.5478617 -0.1262461 -0.67923844 0.073109895 0.025551215 -0.122874476 0.42756948 -0.3152932 -0.30315125 -0.2135741 0.2936162 0.07836031 -0.032667562 0.034646917 0.3722085 -0.42153546 0.36515972 -0.0103587145 -0.052308425 -0.18822266 0.303812 0.05358039 -0.10168471 0.36835524 -0.09188268 0.018091198 0.23146428 0.10234347 -0.004069809 0.017255997 -0.13872759 0.14991732 -0.31843263 -0.26503974 0.20780563 -0.19133542 0.06788116 -0.17608507 -0.35730886 0.549782 0.1742125 -0.05089056 0.3169061 0.64060044 -0.0856071 0.38043815 0.06926429 0.25016087 0.01928142 -0.11544589 -0.1908579 -0.4214312 -0.089661814 0.40083954 0.5016988 -0.13778417 -0.32337517 0.16794859 -0.17548579 -0.2586439 0.081566595 0.41938105 -0.057642397 -0.1916514
2 -0.04979177 0.016083963 0.11095236 -0.01951588 -0.19927873 -0.23268996 0.10830265 0.08218736 -0.23317842 0.36175424 0.32865256 0.120038554 0.4845496 -0.38586622 -0.23559567 -0.3777636 -0.009684212 -0.17774187 0.5575852 -0.17953955 -0.36804527 0.10602047 0.3161536 -0.14046936 0.29468003 -0.020979322 0.118357204 0.014045626 0.10862087 0.727793 0.107664526 -0.2519095 -0.7101945 -0.40873605 -0.626365 -0.43901128 -0.07939197 0.371126 0.176514 -0.07754605 -0.16995348 0.18648139 0.5719282 -0.22151478 -0.594706 0.6460516 -0.33687508 -0.06017341 -0.17503892 -0.65736085 -0.40448043 0.040627655 0.11477825 0.3055581 -0.36503193 -0.31835407 0.22364222 0.27260765 -0.5870189 -0.122906975 -0.27111036 0.16771449 0.08995708 -0.3507526
68 -0.24802758 0.21280918 0.24214861 -0.47190893 0.054921083 -0.21310733 -0.67672694 -0.28527877 -0.29752845 0.25321928 0.03981875 -0.46641824 -0.0040375986 -0.31129116 0.60942346 0.15651475 -0.118819155 -0.65229136 0.025026942 0.1688927 -0.29119596 0.3590021 -0.24896006 0.03616933 0.10270131 0.09204865 0.06360457 0.06999557 0.18669687 0.17610723 0.054941945 0.47012007 -0.007348586 -0.6514254 -0.004651025 -0.008819121 -0.17693661 -0.49696836 0.28133845 0.08585459 0.0900439 -0.2784942 -0.13145012 -0.4206612 0.05880345 -0.12855522 -0.34922898 0.14355843 0.23370142 0.10933465 0.055414587 -0.1217001 0.10008219 0.6042889 -0.14062166 -0.15983222 -0.5551766 0.2768875 0.047325186 0.5698263 -0.2750167 -0.110296875 -0.087467805 0.27190232
15 -0.07768013 -0.07853474 -0.9023598 0.21778199 -0.42305687 0.068494014 0.3647199 -0.28715596 -0.05970383 0.53181636 -0.03533161 -0.13730642 -0.125541 0.16379051 -0.029270584 -0.39128983 0.016788896 0.1207219 0.15618128 0.0024953948 0.8846865 -0.19113456 -0.06502737 0.056484234 0.18764062 0.29688194 0.05825992 0.36406758 0.22185704 -0.10610535 -0.22341886 0.27279103 -0.057181284 -0.18150915 -0.2615604 -0.37715513 0.28102997 -0.23155026 -0.24317148 0.38232568 -0.028045807 0.32937524 -0.1695682 0.20038635 0.06568645 0.0924647 0.21608981 -0.50926274 0.3161742 -0.11171818 -0.6431107 -0.1456756 -0.0059065428 -0.32843757 -0.08192313 0.11686549 0.2396933 0.90916586 -0.048782017 -0.030299785 -0.032416407 0.30097443 -0.64257824 0.23222229
52 0.117947966 -0.48512182 -0.3225507 0.14843309 0.11930592 -0.34770772 -0.0131045785 -0.2636513 -0.30320323 0.31127226 -0.30892596 -0.63440746 -0.17849283 0.19169213 -0.010481584 -0.131832 -0.22127114 0.22206809 -0.020672861 -0.10757586 0.3230783 -0.31103298 0.24987626 -0.054794036 0.37163147 -0.0042091548 -0.16243376 0.34309384 0.24279432 0.47223002 0.0076478897 0.20447467 0.26911563 -0.084441625 -0.086272895 0.71303064 0.051666997 -0.5818127 0.14752887 0.00030945372 -0.16350432 -0.48068503 -0.23389758 -0.008598686 0.10938733 -0.4848854 0.17490046 -0.107641496 0.10021877 0.7304161 -0.14866637 -0.0951179 0.16212018 -0.09321785 0.28011283 -0.04179612 -0.07006719 0.6786803 0.28571543 0.3860405 0.010729408 0.029705511 -0.079442054 0.78526866
31 -0.22688088 -0.47192588 0.13211876 0.20161404 -0.20564444 -0.14686358 -0.11995122 -0.28185585 -0.18829134 -0.20395154 0.025881365 -0.18617399 0.1836384 0.10384971 0.29787606 0.07810868 0.10400175 -0.052189603 0.013634857 -0.1206264 -0.107096456 0.065295406 0.14515929 -0.144431 0.08172249 0.0532582 0.073261924 0.09317354 0.09717809 0.4681474 -0.21823683 -0.0960643 -0.8150561 -0.44926244 0.26494905 -0.16528012 -0.1902393 0.035054795 0.45676333 -0.024591535 0.2000534 -0.08195127 0.5231257 0.289646 -0.37756094 0.76828885 -0.023021603 0.55097586 -0.44110256 -0.27171984 0.33389428 -0.48278528 -0.31605437 0.37504214 0.4830773 0.017582053 -0.6918194 0.031998225 -0.4694406 -0.15657018 0.65827143 0.10812803 0.30243742 -0.37032092
22 -0.41645634 0.06778165 -0.059185203 -0.03445403 0.3773676 -0.19591634 0.5473602 -0.5392103 0.2921879 0.33396736 -0.018872976 -0.002689889 -0.14039187 0.49287492 0.022283273 -0.1560089 -0.16541666 -0.24332604 -0.040691588 -0.0737844 -0.011541308 -0.05548596 0.4714384 0.1769791 -0.011927031 -0.15559742 0.1695704 0.1958612 -0.103894964 0.42503718 -0.55885375 0.23729908 -0.5318236 0.30600697 0.041940045 -0.054455005 -0.17729138 0.2686407 -0.077141486 -0.1480255 0.14748362 -0.13292634 0.54962 0.33689126 0.00523008 0.28729582 -0.2551319 0.17890531 0.2721087 -0.08914485 0.42172545 -0.03478913 0.098066494 0.56160235 0.30009782 -0.10271694 0.43380836 0.13974133 -0.04112603 0.12760203 -0.1257265 0.16886269 -0.009502263 -0.49528128
78 -0.33037546 -0.12468967 -0.014113491 0.22616641 0.2085056 0.2370341 0.7459009 -0.49303684 -0.34244776 0.037324656 -0.3367465 0.2993412 0.49584055 -0.18902071 0.1396818 -0.2678397 0.019631006 -0.17018373 0.30226418 -0.34763646 0.2695775 0.44384804 -0.23242818 0.108254686 -0.29836094 -0.76181984 0.04022262 0.28673664 -0.4502934 0.27457547 0.03711281 0.37877417 -0.018866215 -0.48232812 0.08597767 0.1869689 -0.26971915 -0.15120187 0.060105354 0.74407583 -0.17909293 -0.18172945 -0.17358361 -0.51672983 -0.007127684 -0.14032805 -0.8555049 -0.07973245 -0.19642118 0.039312944 0.13156262 0.019833853 -0.3029938 -0.24815558 0.3680763 -0.061270006 -0.044736393 0.27715445 -0.19917908 0.217463 -0.22370528 0.3977397 -0.021554314 0.32718012
21 -0.050434384 -0.31066954 -0.04714248 -0.38904384 0.18240829 -0.40352792 -0.31393653 -0.06611793 0.10771615 0.063124456 -0.053725895 -0.41552958 0.4703684 -0.06638595 -0.35421926 -0.25564128 -0.057144977 -0.2582565 0.8352266 -0.26439634 -0.034832887 0.343718 -0.19279926 0.74570376 -0.0259901 -0.0953107 0.04824014 0.14568977 -0.43225393 0.9681958 0.20315097 -0.28452915 -0.45078185 -0.69278854 0.07540947 -0.14247972 0.1429589 -0.41453847 0.13339199 0.32820848 -0.044436444 -0.7936658 -0.016032996 0.3066325 0.07539625 0.37564373 0.2426759 0.1879437 -0.22575425 0.1401917 0.33223626 0.10719734 -0.12217417 0.47857186 0.69232 0.18368757 -0.47852808 0.085064456 -0.2880024 0.2754731 0.17559905 0.059831057 0.4417483 -0.40212497
6 0.20463802 -0.37148917 0.067598306 -0.8522463 0.23192342 -0.040178046 -0.48527357 -0.030082561 -0.07006035 0.15782271 0.1509307 -0.030221459 -0.22873895 -0.1474414 -0.95817107 -0.3832662 -0.08010106 0.06632875 0.62698567 -0.19088744 -0.010556156 -0.32532522 0.5330845 0.39792857 0.4345896 0.3535145 -0.15837914 -0.0028636258 -0.26442182 0.7786762 0.08415068 -0.44321826 -0.13802698 -0.2855842 -0.24987516 0.4416389 0.42304456 -0.54844785 0.19299552 -0.3741576 -0.12869805 -0.7167866 -0.34663805 0.19170474 0.2336349 -0.13446899 0.42872477 -0.23755702 -0.51768106 0.31370318 0.103777565 -0.30162352 0.63983136 0.4843386 0.18115081 0.19997488 -0.14157279 0.5870973 0.12748519 0.062278576 -0.30525982 0.30497912 0.17867947 0.34071794
79 -0.11261246 -0.59317595 0.06488208 0.15970317 0.5510944 -0.11051638 0.2731188 0.076355696 0.47910398 0.6409287 -0.25564015 -0.23231281 0.28725055 0.17429864 -0.23179221 0.2534197 -0.21206301 0.3447237 -0.23968913 -0.5286659 0.3627484 0.03863586 0.5549491 -0.41588303 0.31870535 0.09914706 -0.7056035 0.1952849 0.010190488 -0.056788314 -0.54425657 -0.02700386 -0.62293637 0.3098949 -0.011901416 0.58060724 -0.1872286 -0.14091857 0.24959102 -0.8662384 0.13914908 0.0037651027 0.16078015 -0.27165872 -0.6118648 0.10970493 -0.24798942 -0.32182705 0.009145777 0.35325804 0.6450127 -0.7186643 -0.39853057 -0.13076994 -0.16024324 0.11913747 0.72844505 0.8782362 0.024876064 0.20458844 -0.24560617 -0.8138106 -0.06617366 -0.23662604
24 -0.20320512 0.7767935 -0.14569324 -0.4937955 -0.33892906 -0.012430587 -0.19068936 -0.36417475 -0.17833892 -0.0061171222 -0.07367134 0.8127684 -0.2986932 0.10342819 -0.08830215 -0.42089492 0.07605416 -0.5391804 0.2075603 -0.1573907 0.00805399 0.48579073 0.010474028 0.07472112 0.2925667 -0.016772237 0.6064738 0.3254879 -0.043741684 -0.06245416 -0.05143433 0.3973306 -0.09699608 -0.26590452 -0.13096511 -0.44533518 -0.30152032 0.113503 -0.24533047 0.13930587 0.43314904 0.14997165 0.15336889 -0.013739227 -0.21844855 -0.028314833 -0.4468005 -0.38865066 0.092448376 -0.5353661 -0.0059119016 -0.23194094 0.36327848 0.7016322 0.023227545 -0.04805008 0.3774488 0.5708163 -0.31329605 0.34487227 -0.9063834 0.25266185 -0.4384263 -0.25883716
11 -0.019721827 -0.6921762 -0.63182026 0.31787387 0.6063195 0.40745312 0.8386961 -0.0085815005 0.24476764 0.3364108 0.26478365 -0.22087061 0.36020347 -0.25683114 -0.59704566 -0.15336733 0.023305438 -0.07115431 0.39049724 -0.14371605 0.44312674 -0.6267598 0.1094233 0.04521462 -0.06693353 0.3061843 -0.42664894 0.33067507 0.13890274 -0.016028522 0.06925045 -0.023059074 -0.06947434 -0.44684157 -0.40611818 0.25143224 -0.07545647 -0.3676351 -0.27806267 0.17559248 -0.52605945 -0.23407374 -0.008621972 -0.18719624 0.17408444 0.1283706 0.4648707 -0.13104503 0.11432057 0.007905511 0.03780011 0.1823062 -0.07338867 -0.30425608 -0.0401309 0.14128155 -0.01367272 0.57164294 0.0631865 -0.20925637 0.3621551 0.31571728 -0.06888826 0.37991375
41 -0.41118255 -0.22646879 0.33364576 0.17940967 0.20154381 -0.08477889 0.81234676 0.09567803 -0.18457635 0.36784607 -0.19739768 0.21944104 0.31522968 -0.35366607 -0.14313869 -0.41956642 -0.098795086 0.27671334 0.19635558 -0.76599795 0.10069814 -0.034322284 0.037717625 -0.69243544 0.008001823 -0.69846636 0.060106263 0.48066095 0.15821382 0.1755628 0.12943427 0.006632862 -0.49340495 -0.26624423 -0.0126298135 0.02901601 0.014644247 -0.37689084 0.1034896 0.06681016 -0.13340627 0.12697089 0.18733029 -0.08489439 -0.28525883 -0.28411973 -0.84050137 -0.35922003 -0.23011181 0.33139613 -0.30973843 -0.20971873 -0.26734766 -0.107858025 -0.13892871 -0.4968331 0.27722824 0.3370348 -0.15397725 0.25715137 -0.074914165 -0.64036757 -0.15604435 -0.53046733
4 -0.59061813 0.6014633 0.103883706 0.1473057 0.28677815 0.7109359 0.5023516 0.0978533 -0.4879301 0.110748485 0.38981873 0.25183773 -0.031252902 -0.52854365 -0.17094958 0.10005494 -0.58188903 -0.22040015 -0.14107652 -0.21692084 0.102977455 -0.0779293 0.33926514 -0.44999954 -0.33359632 0.12842992 0.5036961 0.5392791 0.18635978 -0.75473 0.21996431 0.4537666 -0.15434887 -0.792772 -0.07791224 -0.32959235 -0.26110908 -0.12836061 -0.01951895 -0.11215396 -0.25729397 0.4892402 -0.34335977 -0.6803472 -0.1097668 -0.44881043 -0.3548302 -0.8585025 -0.6592124 -0.3012803 0.14772424 -0.57374054 -0.04822411 0.18579653 -0.75378865 -0.22262879 0.50854313 0.553372 -0.3238217 -0.30039847 -0.38567582 0.14782956 -0.20865817 -0.09220684
1 -0.32795906 0.16644314 -0.25955376 -0.7002148 -0.043732252 0.14284962 0.042818777 -0.37463874 -0.0014254072 0.10501069 0.32980436 0.06647082 -0.14325689 0.0036625022 0.059282172 -0.27119398 -0.015386519 -0.23325379 0.36739287 0.050814953 -0.1936428 0.20116259 -0.008024687 0.8732849 -0.21216945 0.15664823 0.4313086 0.17756392 -0.30340448 0.47130877 -0.111747 0.1282791 -0.2811209 -0.37940627 -0.521462 -0.24646752 0.29683277 -0.04344851 0.109794326 0.40881798 -0.1369279 -0.2891019 -0.18205726 -0.10176401 0.3242045 0.23901324 -0.14610465 -0.03029876 -0.012398663 -0.37884587 -0.49576288 0.029919738 -0.10632371 0.43946272 0.2994139 -0.20019035 0.11063774 -0.014796812 -0.397451 0.3246673 -0.03848462 0.68397987 0.10080557 -0.15376154
64 0.14649025 -0.16139553 -0.2529973 0.12781204 0.5978569 0.13565522 0.029857492 -0.12493644 0.37118992 0.3565193 0.29374456 0.024203291 0.37364033 -0.13551043 -0.37293768 -0.05882692 0.25817224 -0.083929665 0.49313867 0.34832796 -0.049657732 -0.003476389 0.3261867 0.34182134 -0.095698714 0.2687423 -0.4462307 -0.50070816 0.049506653 0.8658008 -0.3032913 0.191174 0.15424168 0.13173352 -0.47341424 0.35312498 -0.04241373 0.090509154 0.0016128473 -0.20439751 -0.2442351 -0.59100896 0.24717274 -0.18541989 0.03338232 -0.19323905 -0.1931119 0.20895723 0.016675819 0.414569 -0.15976217 -0.03224533 0.08706753 0.26019204 -0.3769319 0.062186386 0.2631328 0.384813 0.25892562 0.56035143 -0.5008854 0.54261464 -0.2704011 0.5296319
74 -0.18706594 -0.5154532 0.21054673 0.036858276 -0.3399061 0.37214878 0.517489 -1.0181262 -0.1265905 -0.17425837 0.2502698 0.43435797 -0.52277863 0.3604419 0.09799082 -0.5702037 0.47542983 -0.2868344 -0.038057346 0.5143566 0.14045331 -1.184064 0.43818915 0.0074559236 0.07251748 -0.2209059 -0.102793016 -0.30628064 0.66012686 0.35131142 -0.6242597 0.6382783 -0.15027763 -0.04528942 -0.065795906 0.09585443 0.5517579 -0.25737542 -0.0046119755 0.036113907 0.0076726745 0.11617366 0.3593037 0.3031668 0.1711624 -0.118662946 0.6640578 0.8835522 0.014507159 -0.15012527 -0.62947375 0.34192675 0.10946469 0.23986237 -0.17897856 -0.12367118 -0.4286877 -0.03667633 0.4247036 -0.21024548 0.35651425 0.5254183 0.012611584 0.10011145
12 -0.084670536 0.26226893 0.30955467 0.052530155 -0.37541258 0.78889716 0.079314016 -1.0269091 0.064099364 0.39367998 -0.58420396 0.43833196 -0.5080508 0.097142935 -0.7649835 -0.30677903 0.44449008 -0.36631492 -0.104736894 -0.18888853 0.23915222 -0.39032918 0.47057158 0.014821362 0.10175021 0.68171793 0.1703491 -0.14949255 0.3785961 -0.09349579 0.24317372 0.31623778 0.29220822 -0.17646001 0.055156063 0.020080136 -0.31488895 0.00077251677 -0.06069922 -0.46756774 0.20417961 -0.2489817 0.3646623 0.45308983 0.27649486 0.07970653 0.6670175 -0.6821554 -0.06751705 0.36566994 -0.39731246 -0.14083694 0.13349847 0.25049576 -0.24578838 -0.021645369 0.006059544 0.44362804 0.23137103 0.108384825 -0.2954881 0.14029899 -0.3704373 -0.3882203
